Language model created by QuickLM on Mon Jan 17 02:00:52 EST 2022
Copyright (c) 1996-2010 Carnegie Mellon University and Alexander I. Rudnicky

The model is in standard ARPA format, designed by Doug Paul while he was at MITRE.

The code that was used to produce this language model is available in Open Source.
Please visit http://www.speech.cs.cmu.edu/tools/ for more information

The (fixed) discount mass is 0.5. The backoffs are computed using the ratio method.
This model based on a corpus of 15 sentences and 24 words

\data\
ngram 1=24
ngram 2=37
ngram 3=27

\1-grams:
-0.8884 </s> -0.3010
-0.8884 <s> -0.2409
-2.0645 ARE -0.2973
-2.0645 BOOK -0.2973
-1.7634 CHROME -0.2366
-1.7634 CLOSE -0.2366
-2.0645 FACEBOOK -0.2409
-2.0645 GAME -0.2409
-2.0645 GOOGLE -0.2409
-2.0645 IN -0.2973
-2.0645 INCOGNITO -0.2409
-2.0645 INSTAGRAM -0.2409
-1.3655 OPEN -0.2819
-2.0645 PLAY -0.2973
-2.0645 PROGRAM -0.2409
-2.0645 SEVEN -0.2409
-2.0645 SHOW -0.2973
-2.0645 SNAKEGAME -0.2409
-2.0645 TICKET -0.2409
-2.0645 TICTACKTOE -0.2409
-2.0645 TIME -0.2409
-2.0645 WHO -0.2973
-2.0645 YOU -0.2409
-2.0645 YOUTUBE -0.2409

\2-grams:
-1.4771 <s> BOOK 0.0000
-1.1761 <s> CLOSE 0.0000
-1.4771 <s> GAME 0.0000
-1.4771 <s> GOOGLE 0.0000
-0.7782 <s> OPEN 0.0000
-1.4771 <s> PLAY 0.0000
-1.4771 <s> SEVEN 0.0000
-1.4771 <s> SHOW 0.0000
-1.4771 <s> SNAKEGAME 0.0000
-1.4771 <s> WHO 0.0000
-0.3010 ARE YOU 0.0000
-0.3010 BOOK TICKET 0.0000
-0.6021 CHROME </s> -0.3010
-0.6021 CHROME IN 0.0000
-0.6021 CLOSE </s> -0.3010
-0.6021 CLOSE PROGRAM 0.0000
-0.3010 FACEBOOK </s> -0.3010
-0.3010 GAME </s> -0.3010
-0.3010 GOOGLE </s> -0.3010
-0.3010 IN INCOGNITO 0.0000
-0.3010 INCOGNITO </s> -0.3010
-0.3010 INSTAGRAM </s> -0.3010
-0.6990 OPEN CHROME 0.0000
-1.0000 OPEN FACEBOOK 0.0000
-1.0000 OPEN INSTAGRAM 0.0000
-1.0000 OPEN YOUTUBE 0.0000
-0.3010 PLAY TICTACKTOE 0.0000
-0.3010 PROGRAM </s> -0.3010
-0.3010 SEVEN </s> -0.3010
-0.3010 SHOW TIME 0.0000
-0.3010 SNAKEGAME </s> -0.3010
-0.3010 TICKET </s> -0.3010
-0.3010 TICTACKTOE </s> -0.3010
-0.3010 TIME </s> -0.3010
-0.3010 WHO ARE 0.0000
-0.3010 YOU </s> -0.3010
-0.3010 YOUTUBE </s> -0.3010

\3-grams:
-0.3010 <s> BOOK TICKET
-0.6021 <s> CLOSE </s>
-0.6021 <s> CLOSE PROGRAM
-0.3010 <s> GAME </s>
-0.3010 <s> GOOGLE </s>
-0.6990 <s> OPEN CHROME
-1.0000 <s> OPEN FACEBOOK
-1.0000 <s> OPEN INSTAGRAM
-1.0000 <s> OPEN YOUTUBE
-0.3010 <s> PLAY TICTACKTOE
-0.3010 <s> SEVEN </s>
-0.3010 <s> SHOW TIME
-0.3010 <s> SNAKEGAME </s>
-0.3010 <s> WHO ARE
-0.3010 ARE YOU </s>
-0.3010 BOOK TICKET </s>
-0.3010 CHROME IN INCOGNITO
-0.3010 CLOSE PROGRAM </s>
-0.3010 IN INCOGNITO </s>
-0.6021 OPEN CHROME </s>
-0.6021 OPEN CHROME IN
-0.3010 OPEN FACEBOOK </s>
-0.3010 OPEN INSTAGRAM </s>
-0.3010 OPEN YOUTUBE </s>
-0.3010 PLAY TICTACKTOE </s>
-0.3010 SHOW TIME </s>
-0.3010 WHO ARE YOU

\end\